{"config": {"d_model": 3, "n_head": 1, "n_layer": 1, "mlp_hidden": 6, "block_size": 16, "vocab_size": 75}, "vocab": ["he", "she", "man", "woman", "boy", "girl", "king", "queen", "they", "apple", "banana", "grape", "rice", "red", "yellow", "green", "blue", "white", "cat", "dog", "fish", "bird", "happy", "sad", "good", "water", "sky", "big", "small", "like", "eat", "see", "want", "give", "go", "is", "are", "the", "a", "and", "very", "not", "in", "on", "with", "house", "school", "to", "today", ".", ",", "fruit", "people", "food", "animal", "has", "play", "together", "friends", "likes", "park", "animals", "an", "sees", "place", "grapes", "wants", "it", "tree", "sweet", "sun", "too", "her", "his", "for"], "categories": {"he": "people", "she": "people", "man": "people", "woman": "people", "boy": "people", "girl": "people", "king": "people", "queen": "people", "they": "people", "apple": "fruit", "banana": "fruit", "grape": "fruit", "rice": "fruit", "red": "color", "yellow": "color", "green": "color", "blue": "color", "white": "color", "cat": "animal", "dog": "animal", "fish": "animal", "bird": "animal", "happy": "sentiment", "sad": "sentiment", "good": "sentiment", "water": "thing", "sky": "thing", "big": "size", "small": "size", "like": "verb", "eat": "verb", "see": "verb", "want": "verb", "give": "verb", "go": "verb", "is": "function", "are": "function", "the": "function", "a": "function", "and": "function", "very": "function", "not": "function", "in": "place", "on": "place", "with": "place", "house": "place", "school": "place", "to": "place", "today": "time", ".": "punctuation", ",": "punctuation", "fruit": "other", "people": "other", "food": "other", "animal": "other", "has": "other", "play": "other", "together": "other", "friends": "other", "likes": "other", "park": "other", "animals": "other", "an": "other", "sees": "other", "place": "other", "grapes": "other", "wants": "other", "it": "other", "tree": "other", "sweet": "other", "sun": "other", "too": "other", "her": "other", "his": "other", "for": "other"}, "weights": {"tok_emb": [[-0.3115760087966919, -2.2334089279174805, -1.1469939947128296], [-0.3324660062789917, -2.2083981037139893, -1.069633960723877], [-1.0929689407348633, -0.7725329995155334, -0.21253499388694763], [-0.6867989897727966, -1.7601840496063232, -0.6143850088119507], [-0.810791015625, -0.8001310229301453, -0.46570900082588196], [-0.8139389753341675, -1.829498052597046, -1.0059850215911865], [-0.6509979963302612, -1.019914984703064, 0.042621999979019165], [-0.7825080156326294, -2.5777499675750732, -0.4482029974460602], [-0.22828799486160278, -0.6453139781951904, -2.837275981903076], [-0.029306000098586082, -0.0668959990143776, 1.659762978553772], [-0.05920799821615219, -0.5593199729919434, 2.0952610969543457], [-0.04524099826812744, -0.6995120048522949, 1.4647539854049683], [0.0008709999965503812, -0.4710800051689148, 1.799815058708191], [-2.522352933883667, 1.520853042602539, -0.3518339991569519], [-0.5934010148048401, 1.024582028388977, 0.3864839971065521], [-2.228714942932129, 1.4440070390701294, -0.2509799897670746], [-2.328145980834961, 1.2847180366516113, -0.9098770022392273], [-0.788856029510498, 0.9430260062217712, 0.22061599791049957], [-0.2771089971065521, -0.5726799964904785, 0.7080860137939453], [-0.32646000385284424, -1.200579047203064, -0.04790100082755089], [-1.11326003074646, -1.2644480466842651, -0.5818380117416382], [-0.45953500270843506, -1.3491649627685547, -0.3446750044822693], [-0.8318169713020325, 0.6824010014533997, -0.6598209738731384], [-0.7371299862861633, 1.1049250364303589, 0.17788000404834747], [-0.6691210269927979, 0.6072260141372681, -0.720661997795105], [-0.27265799045562744, -1.0178380012512207, 1.1311780214309692], [-0.22359499335289001, -0.9261239767074585, 1.636780023574829], [-1.4393459558486938, 0.7567149996757507, -0.9596089720726013], [-1.353525996208191, 0.6901699900627136, -0.9309350252151489], [0.14331099390983582, 1.439869999885559, 0.33619600534439087], [-0.2805449962615967, 1.4842280149459839, 0.25456100702285767], [1.064316987991333, 1.8268330097198486, 1.0791840553283691], [0.18292899429798126, 1.3864799737930298, 0.84443199634552], [-0.8500810265541077, 2.459786891937256, 1.424023985862732], [-0.2453259974718094, 2.3947548866271973, 2.7333199977874756], [2.1823580265045166, 0.49199798703193665, -1.030845046043396], [0.21772199869155884, 0.38837501406669617, -1.7036960124969482], [-2.401998996734619, 2.5442800521850586, -0.9732840061187744], [0.3166399896144867, 1.9742710590362549, -0.6192790269851685], [-0.7620609998703003, 1.0273970365524292, -1.9097119569778442], [2.8795790672302246, 0.30430498719215393, -0.6242340207099915], [2.274991035461426, 0.14421799778938293, -0.8349819779396057], [1.7978659868240356, 1.7468960285186768, 1.527266025543213], [0.1261810064315796, 1.6381239891052246, 0.5079900026321411], [1.049720048904419, 1.0100300312042236, -0.041430000215768814], [-0.5248889923095703, -1.7003129720687866, 0.5999029874801636], [0.08452499657869339, -0.5787789821624756, 1.458335041999817], [1.6464619636535645, -0.6184279918670654, -3.209275960922241], [-0.4197070002555847, 0.06656499952077866, 1.2820409536361694], [0.6418709754943848, 0.47296398878097534, -0.42858999967575073], [0.17258299887180328, 0.36419200897216797, -1.1454119682312012], [-0.19934199750423431, -0.051649998873472214, 2.078075885772705], [-0.5946869850158691, -0.2618730068206787, 0.14742499589920044], [-0.164682999253273, -0.3354890048503876, 1.9345569610595703], [-1.3070590496063232, -0.1694130003452301, 0.19308200478553772], [1.967924952507019, 1.7164000272750854, 1.665779948234558], [0.2397949993610382, 0.7770649790763855, 0.9374849796295166], [-2.164249897003174, -0.4840719997882843, -0.08722899854183197], [-1.1247550249099731, -0.005189999938011169, 0.7214800119400024], [0.2738809883594513, 1.5237040519714355, 0.6745200157165527], [-0.26050999760627747, -1.6363519430160522, 1.4593050479888916], [-1.4149940013885498, -0.28057798743247986, -0.16542500257492065], [-1.7959439754486084, 2.019824981689453, -0.16014499962329865], [1.033808946609497, 1.7491899728775024, 1.0723990201950073], [-0.492686003446579, 0.06218399852514267, 1.8315739631652832], [-1.6245410442352295, -0.38297000527381897, -0.5819029808044434], [0.02377999946475029, 1.058972954750061, 0.11664000153541565], [0.25666099786758423, -0.9351639747619629, 0.10797400027513504], [-0.8643490076065063, -1.0829360485076904, 2.1994569301605225], [-0.30990099906921387, 1.1439950466156006, 1.1673569679260254], [-0.7337930202484131, -0.37713199853897095, 1.570646047592163], [-0.384429007768631, -0.26230499148368835, 1.9882680177688599], [0.9714409708976746, 0.7813829779624939, 0.2574549913406372], [0.15181900560855865, -0.4689440131187439, -3.2311739921569824], [-0.14393199980258942, 0.4271860122680664, -1.4216970205307007]], "pos_emb": [[-2.0015859603881836, -0.43928399682044983, -0.20678700506687164], [0.08101499825716019, -0.2347549945116043, 1.2343510389328003], [-0.6574559807777405, -0.5379509925842285, 0.3836419880390167], [-1.2986940145492554, -0.22950999438762665, 0.39034798741340637], [-1.2831180095672607, -0.43138599395751953, 0.45458000898361206], [-1.0723079442977905, 0.3316729962825775, 1.4896080493927002], [-1.6406919956207275, -0.9955170154571533, 0.005913999862968922], [-1.2253659963607788, -0.6928809881210327, 0.5500159859657288], [-1.6713730096817017, -0.11993300169706345, 0.4019159972667694], [-3.186213970184326, -1.495826005935669, 0.5502430200576782], [1.663301944732666, 0.5050749778747559, -0.19699999690055847], [-0.03339599817991257, 0.7192919850349426, 1.0644149780273438], [-0.8335719704627991, -1.192857027053833, -2.306488037109375], [0.6036570072174072, 0.3150849938392639, 1.142251968383789], [0.30550599098205566, -0.5788819789886475, 0.5643540024757385], [-0.8773279786109924, -0.2692529857158661, 1.3119560480117798]], "Wq": {"W": [[0.383435994386673, -0.23776499927043915, 0.0898279994726181], [0.3662489950656891, -0.14208200573921204, -0.37127000093460083], [0.13412199914455414, 0.34068500995635986, 0.20950999855995178]], "b": [-0.6548449993133545, 0.7716240286827087, 0.4190639853477478]}, "Wk": {"W": [[-0.13227100670337677, 0.7615039944648743, 0.3815689980983734], [-0.509801983833313, 0.5456159710884094, -0.35527101159095764], [-0.4685229957103729, -0.01307199988514185, -0.44751599431037903]], "b": [-0.22357399761676788, 0.3696739971637726, -0.5706689953804016]}, "Wv": {"W": [[-0.7120519876480103, 0.04234800115227699, -0.4120100140571594], [-0.6509079933166504, 0.9704489707946777, -0.9785460233688354], [0.5195500254631042, 0.5572389960289001, 1.0667020082473755]], "b": [-0.2556079924106598, -0.4435789883136749, 0.4999240040779114]}, "fc1": {"W": [[-1.0549839735031128, 0.9383000135421753, 0.04482800140976906, -0.286763995885849, -0.2984830141067505, 1.6816580295562744], [-1.065816044807434, 0.6828209757804871, -0.7011610269546509, 0.042520999908447266, 1.0964939594268799, -1.3256419897079468], [1.1817469596862793, -1.839339017868042, -1.039342999458313, 1.2517030239105225, 0.02616499923169613, 0.5062940120697021]], "b": [0.2575640082359314, -0.8149200081825256, -0.1409360021352768, 0.3531019985675812, 2.035346031188965, 0.9265409708023071]}, "fc2": {"W": [[-1.288478970527649, -0.8007869720458984, 0.566290020942688], [-1.5731920003890991, -0.9436870217323303, 1.1334329843521118], [0.02397100068628788, -1.86673104763031, -0.6925899982452393], [-0.5587189793586731, -0.9429900050163269, 0.8718739748001099], [0.8795940279960632, 1.118556022644043, -0.21138399839401245], [1.3947900533676147, -0.6464809775352478, 0.029318999499082565]], "b": [0.4091950058937073, 0.2762239873409271, -0.37142300605773926]}, "unembed": {"W": [[0.5468140244483948, 0.4175199866294861, 0.23845000565052032, 0.32052600383758545, 0.06156399846076965, 0.20021800696849823, 0.2017650008201599, 0.2691250145435333, -0.22215600311756134, -0.3777729868888855, 0.029589999467134476, -0.26703399419784546, 0.09423299878835678, 0.8405920267105103, 0.9742590188980103, 0.8660230040550232, 0.8939949870109558, 0.9182829856872559, -0.0900219976902008, -0.03014099970459938, -0.08543200045824051, -0.06815099716186523, 0.651636004447937, 0.6944550275802612, 0.7936059832572937, -0.11916299909353256, -0.3673520088195801, 0.9245650172233582, 0.8478479981422424, -0.25822898745536804, -0.0734810009598732, -0.043827999383211136, -0.08568599820137024, 0.0007469999836757779, -0.18407000601291656, -0.04020699858665466, -0.7449589967727661, 0.28160399198532104, 0.7887250185012817, -0.5966079831123352, 0.6421409845352173, 0.4266360104084015, 0.24134600162506104, 0.17530900239944458, -0.03439899906516075, -0.2450229972600937, 0.1910099983215332, -0.15183499455451965, -0.8447539806365967, -1.500493049621582, -0.7240819931030273, 0.28429698944091797, -0.3560349941253662, 0.1173119992017746, -0.3968459963798523, 0.11699000000953674, -0.02403699979186058, -0.39855098724365234, -0.030316999182105064, 0.09421700239181519, -0.014390000142157078, -0.06431800127029419, 0.7239620089530945, 0.04290900006890297, -0.11651299893856049, -0.17685100436210632, 0.049685001373291016, -0.17167599499225616, -0.08545900136232376, 0.7103819847106934, -0.2438099980354309, -0.897936999797821, 0.29354000091552734, 0.36201998591423035, -0.559686005115509], [-0.1616480052471161, -0.42208999395370483, 0.4566839933395386, 0.4236240088939667, 0.5045049786567688, 0.4248049855232239, 0.4896239936351776, 0.39179301261901855, -0.46889200806617737, 0.6988319754600525, 0.5458599925041199, 0.6453660130500793, 0.4013029932975769, 0.40896299481391907, 0.38526099920272827, 0.3419860005378723, 0.3272559940814972, 0.2442840039730072, 0.6252670288085938, 0.6096940040588379, 0.5626040101051331, 0.6509519815444946, -0.22084400057792664, -0.1960269957780838, 0.15185299515724182, 0.5888810157775879, 0.799983024597168, 0.3342610001564026, 0.16727900505065918, -0.8109899759292603, -0.792464017868042, -0.8056349754333496, -0.8182579874992371, -0.7977929711341858, -0.8177509903907776, -0.764922022819519, -0.7812640070915222, 0.10050199925899506, -0.13575400412082672, -0.7178410291671753, -0.3002910017967224, -0.5638819932937622, -0.44506898522377014, -0.3653489947319031, -0.321615993976593, 0.8229789733886719, 0.35670000314712524, 0.08127699792385101, -0.20662599802017212, -0.21270599961280823, -0.5601490139961243, 0.17543600499629974, -0.12467700242996216, 0.022360999137163162, 0.27479100227355957, -0.751878023147583, -0.7688400149345398, -0.3460339903831482, -0.4044150114059448, -0.6814960241317749, 0.7141429781913757, -0.3373059928417206, -0.04085199907422066, -0.7107610106468201, 0.4683629870414734, 0.40461501479148865, -0.7230709791183472, 0.27428799867630005, 0.5679919719696045, 0.11148999631404877, 0.6561470031738281, -0.36076799035072327, 0.21950599551200867, -0.046893998980522156, -0.3115290105342865], [0.2913239896297455, 0.27758100628852844, -0.9441499710083008, -0.9963840246200562, -0.896166980266571, -0.981253981590271, -1.0898319482803345, -1.1411349773406982, 0.21047699451446533, 0.11900299787521362, 0.034662000834941864, 0.09798300266265869, 0.28191500902175903, -0.07576200366020203, -0.05511400103569031, -0.14420799911022186, -0.18390199542045593, -0.13904699683189392, -0.22111999988555908, -0.28126901388168335, -0.10930299758911133, -0.31637999415397644, -0.7827379703521729, -0.7045400142669678, -0.29298099875450134, 0.19507500529289246, -0.08798900246620178, -0.4302609860897064, -0.7695479989051819, 0.07402999699115753, -0.14523200690746307, -0.031989000737667084, 0.015375000424683094, -0.003350999904796481, -0.08765599876642227, 0.4709619879722595, 0.04194600135087967, 0.4192639887332916, 0.6402559876441956, 0.2822220027446747, -0.1894190013408661, -0.004172000102698803, 0.13148699700832367, 0.2038310021162033, 0.5277619957923889, 0.030448000878095627, 0.06330700218677521, 0.7783849835395813, 0.44920000433921814, 0.19542600214481354, 0.17846499383449554, 0.06137999892234802, -1.3878910541534424, 0.09720399975776672, -0.31279298663139343, 0.2488050013780594, -0.2354779988527298, 0.4340269863605499, -0.3212609887123108, 0.21601200103759766, 0.022096000611782074, -0.7501469850540161, 0.27930399775505066, 0.11726099997758865, -0.07524900138378143, 0.2907339930534363, 0.08076199889183044, 0.23543299734592438, -0.06292500346899033, -0.3656170070171356, -0.18799899518489838, 0.18639500439167023, 0.33632999658584595, 0.4424470067024231, 0.21729500591754913]], "b": [-0.8494769930839539, -0.46713098883628845, 0.8830829858779907, 0.8399659991264343, 0.8856250047683716, 1.2057249546051025, -0.14032599329948425, 0.7450069785118103, -0.8043069839477539, 0.22965200245380402, 1.3253190517425537, 0.21013900637626648, 0.8771460056304932, -0.04954399913549423, -0.7719500064849854, -0.19565999507904053, -0.3832870125770569, -0.6772840023040771, 0.9026979804039001, 1.2570500373840332, 0.7188460230827332, 0.03377600014209747, 1.3249950408935547, 0.128371000289917, 1.0885169506072998, -0.02657400071620941, -0.7915120124816895, 0.1453000009059906, -0.04243199899792671, -0.6695250272750854, 0.054648999124765396, -0.3351469933986664, -1.1009989976882935, -1.395645022392273, -0.9184939861297607, -0.5256289839744568, -0.2542169988155365, 2.526357889175415, 0.14821499586105347, -0.324506014585495, 0.21769699454307556, -0.1941089928150177, 2.2573180198669434, -0.8964160084724426, 0.43339601159095764, -0.660860002040863, 1.3784040212631226, 0.2694689929485321, -1.5104459524154663, 0.3844119906425476, -1.6757359504699707, 1.926184058189392, 1.0756800174713135, 2.344844102859497, 1.4831780195236206, -1.611825942993164, -0.37142300605773926, -0.10293400287628174, 1.2628799676895142, -0.6468809843063354, -1.1994049549102783, 0.6105650067329407, -1.2414339780807495, -0.6912969946861267, -0.13193899393081665, -0.7376459836959839, -1.0354759693145752, -1.0350420475006104, -0.6677070260047913, -1.1044000387191772, -1.5584160089492798, -1.5653209686279297, -0.5538910031318665, -1.0531020164489746, -1.3554359674453735]}}, "reference": {"tokens": [0, 35, 38, 6, 49], "logits_last": [-2.012389898300171, -1.7772400379180908, 0.879010021686554, 0.6246500015258789, 1.2865699529647827, 1.2157800197601318, -0.0654899999499321, 0.5411900281906128, -1.0302400588989258, 1.969580054283142, 2.076479911804199, 1.6644200086593628, 1.3606599569320679, -1.0079200267791748, -2.0041000843048096, -1.3152899742126465, -1.5853999853134155, -2.0337300300598145, 1.9247699975967407, 2.131999969482422, 1.6688799858093262, 1.0296800136566162, -0.3829300105571747, -1.6021599769592285, -0.2132200002670288, 1.0991400480270386, 1.0255299806594849, -1.1637200117111206, -1.5392800569534302, -1.3626999855041504, -1.0036799907684326, -1.4387400150299072, -2.134730100631714, -2.5621399879455566, -1.797279953956604, -1.4513800144195557, -0.022369999438524246, 2.2625699043273926, -1.3323099613189697, -0.21151000261306763, -1.4413100481033325, -1.797860026359558, 1.1993600130081177, -1.6993499994277954, 0.15810999274253845, 0.9955999851226807, 1.5655900239944458, 0.8591200113296509, -0.1563200056552887, 2.8650898933410645, -1.1254099607467651, 1.6778500080108643, 1.1994099617004395, 2.187230110168457, 2.5317800045013428, -2.8610899448394775, -1.508080005645752, 0.22842000424861908, 0.6482200026512146, -1.7599600553512573, -0.12538999319076538, 0.0493599995970726, -2.5548300743103027, -1.7778500318527222, 0.7458400130271912, 0.2483700066804886, -2.1614599227905273, -0.2624399960041046, 0.30177000164985657, -2.3309900760650635, -0.20194999873638153, -0.40428999066352844, -0.6864399909973145, -1.6732200384140015, -0.7330999970436096]}}